digraph Tree {
node [shape=box, style="filled", color="black", fontname="helvetica"] ;
edge [fontname="helvetica"] ;
0 [label="RM <= 6.978\nsquared_error = 82.18\nsamples = 295\nvalue = 22.428", fillcolor="#f5ceb2"] ;
1 [label="LSTAT <= 14.915\nsquared_error = 39.471\nsamples = 257\nvalue = 19.962", fillcolor="#f6d5bd"] ;
0 -> 1 [labeldistance=2.5, labelangle=45, headlabel="True"] ;
2 [label="DIS <= 1.461\nsquared_error = 22.856\nsamples = 164\nvalue = 23.084", fillcolor="#f5ccaf"] ;
1 -> 2 ;
3 [label="squared_error = 0.0\nsamples = 2\nvalue = 50.0", fillcolor="#e58139"] ;
2 -> 3 ;
4 [label="RM <= 6.478\nsquared_error = 14.084\nsamples = 162\nvalue = 22.752", fillcolor="#f5cdb1"] ;
2 -> 4 ;
5 [label="LSTAT <= 7.605\nsquared_error = 6.289\nsamples = 121\nvalue = 21.346", fillcolor="#f6d1b7"] ;
4 -> 5 ;
6 [label="PTRATIO <= 19.65\nsquared_error = 1.732\nsamples = 22\nvalue = 23.845", fillcolor="#f4caac"] ;
5 -> 6 ;
7 [label="CHAS <= 0.5\nsquared_error = 1.099\nsamples = 18\nvalue = 24.233", fillcolor="#f4c9aa"] ;
6 -> 7 ;
8 [label="LSTAT <= 6.795\nsquared_error = 0.687\nsamples = 17\nvalue = 24.071", fillcolor="#f4caab"] ;
7 -> 8 ;
9 [label="RM <= 6.066\nsquared_error = 0.491\nsamples = 12\nvalue = 24.392", fillcolor="#f4c9aa"] ;
8 -> 9 ;
10 [label="squared_error = 0.0\nsamples = 1\nvalue = 22.8", fillcolor="#f5cdb1"] ;
9 -> 10 ;
11 [label="PTRATIO <= 16.95\nsquared_error = 0.284\nsamples = 11\nvalue = 24.536", fillcolor="#f4c8a9"] ;
9 -> 11 ;
12 [label="ZN <= 15.0\nsquared_error = 0.116\nsamples = 3\nvalue = 23.833", fillcolor="#f4caac"] ;
11 -> 12 ;
13 [label="squared_error = 0.0\nsamples = 1\nvalue = 24.3", fillcolor="#f4c9aa"] ;
12 -> 13 ;
14 [label="B <= 385.805\nsquared_error = 0.01\nsamples = 2\nvalue = 23.6", fillcolor="#f4cbad"] ;
12 -> 14 ;
15 [label="squared_error = 0.0\nsamples = 1\nvalue = 23.7", fillcolor="#f4cbad"] ;
14 -> 15 ;
16 [label="squared_error = 0.0\nsamples = 1\nvalue = 23.5", fillcolor="#f4cbae"] ;
14 -> 16 ;
17 [label="RM <= 6.416\nsquared_error = 0.092\nsamples = 8\nvalue = 24.8", fillcolor="#f4c8a8"] ;
11 -> 17 ;
18 [label="NOX <= 0.437\nsquared_error = 0.042\nsamples = 5\nvalue = 24.96", fillcolor="#f3c7a7"] ;
17 -> 18 ;
19 [label="ZN <= 55.0\nsquared_error = 0.002\nsamples = 2\nvalue = 24.75", fillcolor="#f4c8a8"] ;
18 -> 19 ;
20 [label="squared_error = 0.0\nsamples = 1\nvalue = 24.8", fillcolor="#f4c8a8"] ;
19 -> 20 ;
21 [label="squared_error = -0.0\nsamples = 1\nvalue = 24.7", fillcolor="#f4c8a8"] ;
19 -> 21 ;
22 [label="AGE <= 17.75\nsquared_error = 0.02\nsamples = 3\nvalue = 25.1", fillcolor="#f3c7a7"] ;
18 -> 22 ;
23 [label="squared_error = 0.0\nsamples = 1\nvalue = 25.3", fillcolor="#f3c6a6"] ;
22 -> 23 ;
24 [label="squared_error = 0.0\nsamples = 2\nvalue = 25.0", fillcolor="#f3c7a7"] ;
22 -> 24 ;
25 [label="AGE <= 7.75\nsquared_error = 0.062\nsamples = 3\nvalue = 24.533", fillcolor="#f4c8a9"] ;
17 -> 25 ;
26 [label="squared_error = 0.0\nsamples = 1\nvalue = 24.2", fillcolor="#f4c9ab"] ;
25 -> 26 ;
27 [label="NOX <= 0.462\nsquared_error = 0.01\nsamples = 2\nvalue = 24.7", fillcolor="#f4c8a8"] ;
25 -> 27 ;
28 [label="squared_error = 0.0\nsamples = 1\nvalue = 24.8", fillcolor="#f4c8a8"] ;
27 -> 28 ;
29 [label="squared_error = -0.0\nsamples = 1\nvalue = 24.6", fillcolor="#f4c8a9"] ;
27 -> 29 ;
30 [label="B <= 392.205\nsquared_error = 0.316\nsamples = 5\nvalue = 23.3", fillcolor="#f4ccae"] ;
8 -> 30 ;
31 [label="B <= 382.925\nsquared_error = 0.023\nsamples = 2\nvalue = 22.75", fillcolor="#f5cdb1"] ;
30 -> 31 ;
32 [label="squared_error = 0.0\nsamples = 1\nvalue = 22.6", fillcolor="#f5ceb2"] ;
31 -> 32 ;
33 [label="squared_error = 0.0\nsamples = 1\nvalue = 22.9", fillcolor="#f5cdb0"] ;
31 -> 33 ;
34 [label="LSTAT <= 7.035\nsquared_error = 0.176\nsamples = 3\nvalue = 23.667", fillcolor="#f4cbad"] ;
30 -> 34 ;
35 [label="squared_error = 0.0\nsamples = 1\nvalue = 23.1", fillcolor="#f5ccaf"] ;
34 -> 35 ;
36 [label="DIS <= 5.405\nsquared_error = 0.023\nsamples = 2\nvalue = 23.95", fillcolor="#f4caac"] ;
34 -> 36 ;
37 [label="squared_error = 0.0\nsamples = 1\nvalue = 23.8", fillcolor="#f4caac"] ;
36 -> 37 ;
38 [label="squared_error = -0.0\nsamples = 1\nvalue = 24.1", fillcolor="#f4caab"] ;
36 -> 38 ;
39 [label="squared_error = 0.0\nsamples = 1\nvalue = 27.0", fillcolor="#f2c19e"] ;
7 -> 39 ;
40 [label="CRIM <= 0.044\nsquared_error = 0.855\nsamples = 4\nvalue = 22.1", fillcolor="#f5cfb4"] ;
6 -> 40 ;
41 [label="squared_error = 0.0\nsamples = 1\nvalue = 20.7", fillcolor="#f6d3ba"] ;
40 -> 41 ;
42 [label="RM <= 6.23\nsquared_error = 0.269\nsamples = 3\nvalue = 22.567", fillcolor="#f5ceb2"] ;
40 -> 42 ;
43 [label="squared_error = 0.0\nsamples = 1\nvalue = 23.3", fillcolor="#f4ccae"] ;
42 -> 43 ;
44 [label="squared_error = -0.0\nsamples = 2\nvalue = 22.2", fillcolor="#f5cfb3"] ;
42 -> 44 ;
45 [label="TAX <= 208.0\nsquared_error = 5.606\nsamples = 99\nvalue = 20.791", fillcolor="#f6d3ba"] ;
5 -> 45 ;
46 [label="DIS <= 2.623\nsquared_error = 11.247\nsamples = 4\nvalue = 24.85", fillcolor="#f4c7a8"] ;
45 -> 46 ;
47 [label="AGE <= 79.05\nsquared_error = 0.09\nsamples = 2\nvalue = 21.7", fillcolor="#f5d0b6"] ;
46 -> 47 ;
48 [label="squared_error = 0.0\nsamples = 1\nvalue = 22.0", fillcolor="#f5cfb4"] ;
47 -> 48 ;
49 [label="squared_error = 0.0\nsamples = 1\nvalue = 21.4", fillcolor="#f6d1b7"] ;
47 -> 49 ;
50 [label="LSTAT <= 13.565\nsquared_error = 2.56\nsamples = 2\nvalue = 28.0", fillcolor="#f2bf9a"] ;
46 -> 50 ;
51 [label="squared_error = 0.0\nsamples = 1\nvalue = 29.6", fillcolor="#f1ba93"] ;
50 -> 51 ;
52 [label="squared_error = 0.0\nsamples = 1\nvalue = 26.4", fillcolor="#f3c3a1"] ;
50 -> 52 ;
53 [label="LSTAT <= 12.02\nsquared_error = 4.645\nsamples = 95\nvalue = 20.62", fillcolor="#f6d3ba"] ;
45 -> 53 ;
54 [label="RM <= 6.077\nsquared_error = 3.404\nsamples = 54\nvalue = 21.35", fillcolor="#f6d1b7"] ;
53 -> 54 ;
55 [label="B <= 379.57\nsquared_error = 2.518\nsamples = 30\nvalue = 20.603", fillcolor="#f6d3ba"] ;
54 -> 55 ;
56 [label="INDUS <= 8.505\nsquared_error = 1.69\nsamples = 2\nvalue = 23.0", fillcolor="#f5cdb0"] ;
55 -> 56 ;
57 [label="squared_error = 0.0\nsamples = 1\nvalue = 24.3", fillcolor="#f4c9aa"] ;
56 -> 57 ;
58 [label="squared_error = 0.0\nsamples = 1\nvalue = 21.7", fillcolor="#f5d0b6"] ;
56 -> 58 ;
59 [label="DIS <= 2.725\nsquared_error = 2.137\nsamples = 28\nvalue = 20.432", fillcolor="#f6d4bb"] ;
55 -> 59 ;
60 [label="RM <= 5.534\nsquared_error = 0.582\nsamples = 4\nvalue = 21.975", fillcolor="#f5cfb4"] ;
59 -> 60 ;
61 [label="squared_error = 0.0\nsamples = 1\nvalue = 20.8", fillcolor="#f6d3b9"] ;
60 -> 61 ;
62 [label="RAD <= 5.5\nsquared_error = 0.162\nsamples = 3\nvalue = 22.367", fillcolor="#f5ceb3"] ;
60 -> 62 ;
63 [label="B <= 394.17\nsquared_error = 0.003\nsamples = 2\nvalue = 22.65", fillcolor="#f5ceb1"] ;
62 -> 63 ;
64 [label="squared_error = 0.0\nsamples = 1\nvalue = 22.6", fillcolor="#f5ceb2"] ;
63 -> 64 ;
65 [label="squared_error = 0.0\nsamples = 1\nvalue = 22.7", fillcolor="#f5cdb1"] ;
63 -> 65 ;
66 [label="squared_error = 0.0\nsamples = 1\nvalue = 21.8", fillcolor="#f5d0b5"] ;
62 -> 66 ;
67 [label="AGE <= 42.85\nsquared_error = 1.934\nsamples = 24\nvalue = 20.175", fillcolor="#f6d5bc"] ;
59 -> 67 ;
68 [label="DIS <= 3.973\nsquared_error = 2.432\nsamples = 11\nvalue = 20.955", fillcolor="#f6d2b9"] ;
67 -> 68 ;
69 [label="squared_error = 0.0\nsamples = 1\nvalue = 24.7", fillcolor="#f4c8a8"] ;
68 -> 69 ;
70 [label="INDUS <= 3.505\nsquared_error = 1.132\nsamples = 10\nvalue = 20.58", fillcolor="#f6d3ba"] ;
68 -> 70 ;
71 [label="ZN <= 70.0\nsquared_error = 0.16\nsamples = 2\nvalue = 19.0", fillcolor="#f7d8c1"] ;
70 -> 71 ;
72 [label="squared_error = 0.0\nsamples = 1\nvalue = 18.6", fillcolor="#f7d9c3"] ;
71 -> 72 ;
73 [label="squared_error = 0.0\nsamples = 1\nvalue = 19.4", fillcolor="#f7d7c0"] ;
71 -> 73 ;
74 [label="RM <= 5.722\nsquared_error = 0.594\nsamples = 8\nvalue = 20.975", fillcolor="#f6d2b9"] ;
70 -> 74 ;
75 [label="squared_error = 0.0\nsamples = 1\nvalue = 19.3", fillcolor="#f7d7c0"] ;
74 -> 75 ;
76 [label="RM <= 5.882\nsquared_error = 0.221\nsamples = 7\nvalue = 21.214", fillcolor="#f6d2b8"] ;
74 -> 76 ;
77 [label="NOX <= 0.4\nsquared_error = 0.229\nsamples = 3\nvalue = 21.567", fillcolor="#f5d1b6"] ;
76 -> 77 ;
78 [label="squared_error = 0.0\nsamples = 1\nvalue = 20.9", fillcolor="#f6d2b9"] ;
77 -> 78 ;
79 [label="AGE <= 30.85\nsquared_error = 0.01\nsamples = 2\nvalue = 21.9", fillcolor="#f5d0b5"] ;
77 -> 79 ;
80 [label="squared_error = 0.0\nsamples = 1\nvalue = 22.0", fillcolor="#f5cfb4"] ;
79 -> 80 ;
81 [label="squared_error = 0.0\nsamples = 1\nvalue = 21.8", fillcolor="#f5d0b5"] ;
79 -> 81 ;
82 [label="CRIM <= 0.036\nsquared_error = 0.053\nsamples = 4\nvalue = 20.95", fillcolor="#f6d2b9"] ;
76 -> 82 ;
83 [label="squared_error = 0.0\nsamples = 1\nvalue = 20.6", fillcolor="#f6d3ba"] ;
82 -> 83 ;
84 [label="CRIM <= 0.125\nsquared_error = 0.016\nsamples = 3\nvalue = 21.067", fillcolor="#f6d2b8"] ;
82 -> 84 ;
85 [label="AGE <= 37.25\nsquared_error = 0.002\nsamples = 2\nvalue = 21.15", fillcolor="#f6d2b8"] ;
84 -> 85 ;
86 [label="squared_error = 0.0\nsamples = 1\nvalue = 21.1", fillcolor="#f6d2b8"] ;
85 -> 86 ;
87 [label="squared_error = 0.0\nsamples = 1\nvalue = 21.2", fillcolor="#f6d2b8"] ;
85 -> 87 ;
88 [label="squared_error = 0.0\nsamples = 1\nvalue = 20.9", fillcolor="#f6d2b9"] ;
84 -> 88 ;
89 [label="CRIM <= 0.306\nsquared_error = 0.563\nsamples = 13\nvalue = 19.515", fillcolor="#f7d6bf"] ;
67 -> 89 ;
90 [label="CRIM <= 0.032\nsquared_error = 0.148\nsamples = 7\nvalue = 19.129", fillcolor="#f7d7c1"] ;
89 -> 90 ;
91 [label="squared_error = 0.0\nsamples = 1\nvalue = 18.5", fillcolor="#f7d9c4"] ;
90 -> 91 ;
92 [label="RM <= 5.947\nsquared_error = 0.096\nsamples = 6\nvalue = 19.233", fillcolor="#f7d7c0"] ;
90 -> 92 ;
93 [label="ZN <= 12.5\nsquared_error = 0.002\nsamples = 2\nvalue = 19.55", fillcolor="#f7d6bf"] ;
92 -> 93 ;
94 [label="squared_error = 0.0\nsamples = 1\nvalue = 19.5", fillcolor="#f7d6bf"] ;
93 -> 94 ;
95 [label="squared_error = 0.0\nsamples = 1\nvalue = 19.6", fillcolor="#f7d6bf"] ;
93 -> 95 ;
96 [label="DIS <= 3.823\nsquared_error = 0.067\nsamples = 4\nvalue = 19.075", fillcolor="#f7d8c1"] ;
92 -> 96 ;
97 [label="PTRATIO <= 18.1\nsquared_error = 0.01\nsamples = 2\nvalue = 19.3", fillcolor="#f7d7c0"] ;
96 -> 97 ;
98 [label="squared_error = 0.0\nsamples = 1\nvalue = 19.2", fillcolor="#f7d7c1"] ;
97 -> 98 ;
99 [label="squared_error = 0.0\nsamples = 1\nvalue = 19.4", fillcolor="#f7d7c0"] ;
97 -> 99 ;
100 [label="CRIM <= 0.058\nsquared_error = 0.022\nsamples = 2\nvalue = 18.85", fillcolor="#f7d8c2"] ;
96 -> 100 ;
101 [label="squared_error = 0.0\nsamples = 1\nvalue = 19.0", fillcolor="#f7d8c1"] ;
100 -> 101 ;
102 [label="squared_error = -0.0\nsamples = 1\nvalue = 18.7", fillcolor="#f7d9c3"] ;
100 -> 102 ;
103 [label="RM <= 5.781\nsquared_error = 0.669\nsamples = 6\nvalue = 19.967", fillcolor="#f6d5bd"] ;
89 -> 103 ;
104 [label="squared_error = 0.0\nsamples = 1\nvalue = 18.2", fillcolor="#f7dac5"] ;
103 -> 104 ;
105 [label="RM <= 5.87\nsquared_error = 0.054\nsamples = 5\nvalue = 20.32", fillcolor="#f6d4bc"] ;
103 -> 105 ;
106 [label="squared_error = 0.0\nsamples = 1\nvalue = 19.9", fillcolor="#f6d5bd"] ;
105 -> 106 ;
107 [label="NOX <= 0.564\nsquared_error = 0.012\nsamples = 4\nvalue = 20.425", fillcolor="#f6d4bb"] ;
105 -> 107 ;
108 [label="INDUS <= 9.02\nsquared_error = 0.002\nsamples = 3\nvalue = 20.367", fillcolor="#f6d4bb"] ;
107 -> 108 ;
109 [label="squared_error = 0.0\nsamples = 2\nvalue = 20.4", fillcolor="#f6d4bb"] ;
108 -> 109 ;
110 [label="squared_error = -0.0\nsamples = 1\nvalue = 20.3", fillcolor="#f6d4bc"] ;
108 -> 110 ;
111 [label="squared_error = -0.0\nsamples = 1\nvalue = 20.6", fillcolor="#f6d3ba"] ;
107 -> 111 ;
112 [label="CRIM <= 0.3\nsquared_error = 2.943\nsamples = 24\nvalue = 22.283", fillcolor="#f5cfb3"] ;
54 -> 112 ;
113 [label="AGE <= 83.5\nsquared_error = 2.455\nsamples = 13\nvalue = 21.338", fillcolor="#f6d1b7"] ;
112 -> 113 ;
114 [label="PTRATIO <= 18.6\nsquared_error = 1.23\nsamples = 11\nvalue = 21.845", fillcolor="#f5d0b5"] ;
113 -> 114 ;
115 [label="B <= 395.81\nsquared_error = 0.928\nsamples = 7\nvalue = 22.429", fillcolor="#f5ceb2"] ;
114 -> 115 ;
116 [label="RM <= 6.312\nsquared_error = 0.086\nsamples = 5\nvalue = 21.84", fillcolor="#f5d0b5"] ;
115 -> 116 ;
117 [label="PTRATIO <= 18.2\nsquared_error = 0.01\nsamples = 2\nvalue = 21.5", fillcolor="#f5d1b6"] ;
116 -> 117 ;
118 [label="squared_error = 0.0\nsamples = 1\nvalue = 21.4", fillcolor="#f6d1b7"] ;
117 -> 118 ;
119 [label="squared_error = 0.0\nsamples = 1\nvalue = 21.6", fillcolor="#f5d1b6"] ;
117 -> 119 ;
120 [label="LSTAT <= 9.725\nsquared_error = 0.009\nsamples = 3\nvalue = 22.067", fillcolor="#f5cfb4"] ;
116 -> 120 ;
121 [label="squared_error = 0.0\nsamples = 2\nvalue = 22.0", fillcolor="#f5cfb4"] ;
120 -> 121 ;
122 [label="squared_error = -0.0\nsamples = 1\nvalue = 22.2", fillcolor="#f5cfb3"] ;
120 -> 122 ;
123 [label="squared_error = -0.0\nsamples = 2\nvalue = 23.9", fillcolor="#f4caac"] ;
115 -> 123 ;
124 [label="RM <= 6.256\nsquared_error = 0.122\nsamples = 4\nvalue = 20.825", fillcolor="#f6d3b9"] ;
114 -> 124 ;
125 [label="AGE <= 61.25\nsquared_error = 0.016\nsamples = 3\nvalue = 20.633", fillcolor="#f6d3ba"] ;
124 -> 125 ;
126 [label="squared_error = 0.0\nsamples = 1\nvalue = 20.8", fillcolor="#f6d3b9"] ;
125 -> 126 ;
127 [label="PTRATIO <= 20.05\nsquared_error = 0.002\nsamples = 2\nvalue = 20.55", fillcolor="#f6d3bb"] ;
125 -> 127 ;
128 [label="squared_error = 0.0\nsamples = 1\nvalue = 20.5", fillcolor="#f6d4bb"] ;
127 -> 128 ;
129 [label="squared_error = -0.0\nsamples = 1\nvalue = 20.6", fillcolor="#f6d3ba"] ;
127 -> 129 ;
130 [label="squared_error = 0.0\nsamples = 1\nvalue = 21.4", fillcolor="#f6d1b7"] ;
124 -> 130 ;
131 [label="CRIM <= 0.186\nsquared_error = 0.003\nsamples = 2\nvalue = 18.55", fillcolor="#f7d9c3"] ;
113 -> 131 ;
132 [label="squared_error = 0.0\nsamples = 1\nvalue = 18.5", fillcolor="#f7d9c4"] ;
131 -> 132 ;
133 [label="squared_error = 0.0\nsamples = 1\nvalue = 18.6", fillcolor="#f7d9c3"] ;
131 -> 133 ;
134 [label="LSTAT <= 10.085\nsquared_error = 1.218\nsamples = 11\nvalue = 23.4", fillcolor="#f4cbae"] ;
112 -> 134 ;
135 [label="CRIM <= 1.632\nsquared_error = 0.109\nsamples = 3\nvalue = 24.767", fillcolor="#f4c8a8"] ;
134 -> 135 ;
136 [label="squared_error = 0.0\nsamples = 1\nvalue = 24.3", fillcolor="#f4c9aa"] ;
135 -> 136 ;
137 [label="squared_error = 0.0\nsamples = 2\nvalue = 25.0", fillcolor="#f3c7a7"] ;
135 -> 137 ;
138 [label="DIS <= 3.822\nsquared_error = 0.671\nsamples = 8\nvalue = 22.888", fillcolor="#f5cdb0"] ;
134 -> 138 ;
139 [label="CRIM <= 2.375\nsquared_error = 0.302\nsamples = 7\nvalue = 23.129", fillcolor="#f5ccaf"] ;
138 -> 139 ;
140 [label="B <= 381.255\nsquared_error = 0.187\nsamples = 4\nvalue = 23.475", fillcolor="#f4cbae"] ;
139 -> 140 ;
141 [label="B <= 336.92\nsquared_error = 0.01\nsamples = 2\nvalue = 23.9", fillcolor="#f4caac"] ;
140 -> 141 ;
142 [label="squared_error = 0.0\nsamples = 1\nvalue = 23.8", fillcolor="#f4caac"] ;
141 -> 142 ;
143 [label="squared_error = 0.0\nsamples = 1\nvalue = 24.0", fillcolor="#f4caab"] ;
141 -> 143 ;
144 [label="CRIM <= 0.496\nsquared_error = 0.002\nsamples = 2\nvalue = 23.05", fillcolor="#f5ccb0"] ;
140 -> 144 ;
145 [label="squared_error = 0.0\nsamples = 1\nvalue = 23.1", fillcolor="#f5ccaf"] ;
144 -> 145 ;
146 [label="squared_error = 0.0\nsamples = 1\nvalue = 23.0", fillcolor="#f5cdb0"] ;
144 -> 146 ;
147 [label="PTRATIO <= 17.45\nsquared_error = 0.082\nsamples = 3\nvalue = 22.667", fillcolor="#f5ceb1"] ;
139 -> 147 ;
148 [label="squared_error = 0.0\nsamples = 1\nvalue = 22.3", fillcolor="#f5cfb3"] ;
147 -> 148 ;
149 [label="B <= 396.165\nsquared_error = 0.022\nsamples = 2\nvalue = 22.85", fillcolor="#f5cdb0"] ;
147 -> 149 ;
150 [label="squared_error = 0.0\nsamples = 1\nvalue = 22.7", fillcolor="#f5cdb1"] ;
149 -> 150 ;
151 [label="squared_error = -0.0\nsamples = 1\nvalue = 23.0", fillcolor="#f5cdb0"] ;
149 -> 151 ;
152 [label="squared_error = 0.0\nsamples = 1\nvalue = 21.2", fillcolor="#f6d2b8"] ;
138 -> 152 ;
153 [label="CHAS <= 0.5\nsquared_error = 4.655\nsamples = 41\nvalue = 19.659", fillcolor="#f7d6bf"] ;
53 -> 153 ;
154 [label="AGE <= 98.05\nsquared_error = 3.954\nsamples = 37\nvalue = 19.349", fillcolor="#f7d7c0"] ;
153 -> 154 ;
155 [label="RM <= 5.583\nsquared_error = 3.322\nsamples = 35\nvalue = 19.551", fillcolor="#f7d6bf"] ;
154 -> 155 ;
156 [label="INDUS <= 11.075\nsquared_error = 0.36\nsamples = 2\nvalue = 22.5", fillcolor="#f5ceb2"] ;
155 -> 156 ;
157 [label="squared_error = 0.0\nsamples = 1\nvalue = 23.1", fillcolor="#f5ccaf"] ;
156 -> 157 ;
158 [label="squared_error = -0.0\nsamples = 1\nvalue = 21.9", fillcolor="#f5d0b5"] ;
156 -> 158 ;
159 [label="LSTAT <= 14.26\nsquared_error = 2.943\nsamples = 33\nvalue = 19.373", fillcolor="#f7d7c0"] ;
155 -> 159 ;
160 [label="B <= 194.75\nsquared_error = 2.212\nsamples = 26\nvalue = 19.85", fillcolor="#f6d5be"] ;
159 -> 160 ;
161 [label="squared_error = 0.0\nsamples = 1\nvalue = 16.1", fillcolor="#f9e0ce"] ;
160 -> 161 ;
162 [label="DIS <= 5.821\nsquared_error = 1.715\nsamples = 25\nvalue = 20.0", fillcolor="#f6d5bd"] ;
160 -> 162 ;
163 [label="AGE <= 67.95\nsquared_error = 1.068\nsamples = 20\nvalue = 20.41", fillcolor="#f6d4bb"] ;
162 -> 163 ;
164 [label="AGE <= 42.0\nsquared_error = 0.526\nsamples = 9\nvalue = 21.278", fillcolor="#f6d1b7"] ;
163 -> 164 ;
165 [label="RM <= 5.828\nsquared_error = 0.09\nsamples = 2\nvalue = 20.3", fillcolor="#f6d4bc"] ;
164 -> 165 ;
166 [label="squared_error = 0.0\nsamples = 1\nvalue = 20.0", fillcolor="#f6d5bd"] ;
165 -> 166 ;
167 [label="squared_error = 0.0\nsamples = 1\nvalue = 20.6", fillcolor="#f6d3ba"] ;
165 -> 167 ;
168 [label="INDUS <= 5.725\nsquared_error = 0.3\nsamples = 7\nvalue = 21.557", fillcolor="#f5d1b6"] ;
164 -> 168 ;
169 [label="squared_error = 0.0\nsamples = 1\nvalue = 22.5", fillcolor="#f5ceb2"] ;
168 -> 169 ;
170 [label="PTRATIO <= 19.4\nsquared_error = 0.177\nsamples = 6\nvalue = 21.4", fillcolor="#f6d1b7"] ;
168 -> 170 ;
171 [label="TAX <= 347.5\nsquared_error = 0.007\nsamples = 4\nvalue = 21.125", fillcolor="#f6d2b8"] ;
170 -> 171 ;
172 [label="RM <= 5.984\nsquared_error = 0.002\nsamples = 2\nvalue = 21.05", fillcolor="#f6d2b8"] ;
171 -> 172 ;
173 [label="squared_error = 0.0\nsamples = 1\nvalue = 21.1", fillcolor="#f6d2b8"] ;
172 -> 173 ;
174 [label="squared_error = 0.0\nsamples = 1\nvalue = 21.0", fillcolor="#f6d2b9"] ;
172 -> 174 ;
175 [label="INDUS <= 11.26\nsquared_error = 0.0\nsamples = 2\nvalue = 21.2", fillcolor="#f6d2b8"] ;
171 -> 175 ;
176 [label="squared_error = 0.0\nsamples = 1\nvalue = 21.2", fillcolor="#f6d2b8"] ;
175 -> 176 ;
177 [label="squared_error = 0.0\nsamples = 1\nvalue = 21.2", fillcolor="#f6d2b8"] ;
175 -> 177 ;
178 [label="B <= 395.195\nsquared_error = 0.062\nsamples = 2\nvalue = 21.95", fillcolor="#f5d0b4"] ;
170 -> 178 ;
179 [label="squared_error = 0.0\nsamples = 1\nvalue = 21.7", fillcolor="#f5d0b6"] ;
178 -> 179 ;
180 [label="squared_error = -0.0\nsamples = 1\nvalue = 22.2", fillcolor="#f5cfb3"] ;
178 -> 180 ;
181 [label="PTRATIO <= 19.7\nsquared_error = 0.391\nsamples = 11\nvalue = 19.7", fillcolor="#f7d6be"] ;
163 -> 181 ;
182 [label="B <= 372.515\nsquared_error = 0.16\nsamples = 2\nvalue = 18.7", fillcolor="#f7d9c3"] ;
181 -> 182 ;
183 [label="squared_error = 0.0\nsamples = 1\nvalue = 19.1", fillcolor="#f7d8c1"] ;
182 -> 183 ;
184 [label="squared_error = -0.0\nsamples = 1\nvalue = 18.3", fillcolor="#f7dac4"] ;
182 -> 184 ;
185 [label="DIS <= 2.197\nsquared_error = 0.171\nsamples = 9\nvalue = 19.922", fillcolor="#f6d5bd"] ;
181 -> 185 ;
186 [label="DIS <= 2.037\nsquared_error = 0.04\nsamples = 2\nvalue = 20.6", fillcolor="#f6d3ba"] ;
185 -> 186 ;
187 [label="squared_error = 0.0\nsamples = 1\nvalue = 20.8", fillcolor="#f6d3b9"] ;
186 -> 187 ;
188 [label="squared_error = -0.0\nsamples = 1\nvalue = 20.4", fillcolor="#f6d4bb"] ;
186 -> 188 ;
189 [label="DIS <= 2.584\nsquared_error = 0.039\nsamples = 7\nvalue = 19.729", fillcolor="#f6d6be"] ;
185 -> 189 ;
190 [label="AGE <= 94.1\nsquared_error = 0.032\nsamples = 4\nvalue = 19.85", fillcolor="#f6d5be"] ;
189 -> 190 ;
191 [label="NOX <= 0.645\nsquared_error = 0.01\nsamples = 2\nvalue = 20.0", fillcolor="#f6d5bd"] ;
190 -> 191 ;
192 [label="squared_error = 0.0\nsamples = 1\nvalue = 20.1", fillcolor="#f6d5bd"] ;
191 -> 192 ;
193 [label="squared_error = 0.0\nsamples = 1\nvalue = 19.9", fillcolor="#f6d5bd"] ;
191 -> 193 ;
194 [label="AGE <= 97.4\nsquared_error = 0.01\nsamples = 2\nvalue = 19.7", fillcolor="#f7d6be"] ;
190 -> 194 ;
195 [label="squared_error = 0.0\nsamples = 1\nvalue = 19.8", fillcolor="#f6d6be"] ;
194 -> 195 ;
196 [label="squared_error = -0.0\nsamples = 1\nvalue = 19.6", fillcolor="#f7d6bf"] ;
194 -> 196 ;
197 [label="B <= 396.115\nsquared_error = 0.002\nsamples = 3\nvalue = 19.567", fillcolor="#f7d6bf"] ;
189 -> 197 ;
198 [label="squared_error = 0.0\nsamples = 2\nvalue = 19.6", fillcolor="#f7d6bf"] ;
197 -> 198 ;
199 [label="squared_error = 0.0\nsamples = 1\nvalue = 19.5", fillcolor="#f7d6bf"] ;
197 -> 199 ;
200 [label="LSTAT <= 13.12\nsquared_error = 0.942\nsamples = 5\nvalue = 18.36", fillcolor="#f7dac4"] ;
162 -> 200 ;
201 [label="NOX <= 0.423\nsquared_error = 0.022\nsamples = 2\nvalue = 17.25", fillcolor="#f8ddc9"] ;
200 -> 201 ;
202 [label="squared_error = 0.0\nsamples = 1\nvalue = 17.4", fillcolor="#f8dcc8"] ;
201 -> 202 ;
203 [label="squared_error = 0.0\nsamples = 1\nvalue = 17.1", fillcolor="#f8ddca"] ;
201 -> 203 ;
204 [label="TAX <= 263.5\nsquared_error = 0.187\nsamples = 3\nvalue = 19.1", fillcolor="#f7d8c1"] ;
200 -> 204 ;
205 [label="squared_error = 0.0\nsamples = 1\nvalue = 19.7", fillcolor="#f7d6be"] ;
204 -> 205 ;
206 [label="B <= 396.005\nsquared_error = 0.01\nsamples = 2\nvalue = 18.8", fillcolor="#f7d8c2"] ;
204 -> 206 ;
207 [label="squared_error = 0.0\nsamples = 1\nvalue = 18.7", fillcolor="#f7d9c3"] ;
206 -> 207 ;
208 [label="squared_error = 0.0\nsamples = 1\nvalue = 18.9", fillcolor="#f7d8c2"] ;
206 -> 208 ;
209 [label="TAX <= 436.0\nsquared_error = 1.671\nsamples = 7\nvalue = 17.6", fillcolor="#f8dcc8"] ;
159 -> 209 ;
210 [label="CRIM <= 0.728\nsquared_error = 0.302\nsamples = 5\nvalue = 16.86", fillcolor="#f8decb"] ;
209 -> 210 ;
211 [label="NOX <= 0.495\nsquared_error = 0.116\nsamples = 3\nvalue = 16.467", fillcolor="#f8dfcd"] ;
210 -> 211 ;
212 [label="squared_error = 0.0\nsamples = 1\nvalue = 16.0", fillcolor="#f9e0cf"] ;
211 -> 212 ;
213 [label="B <= 386.89\nsquared_error = 0.01\nsamples = 2\nvalue = 16.7", fillcolor="#f8decc"] ;
211 -> 213 ;
214 [label="squared_error = 0.0\nsamples = 1\nvalue = 16.6", fillcolor="#f8dfcc"] ;
213 -> 214 ;
215 [label="squared_error = -0.0\nsamples = 1\nvalue = 16.8", fillcolor="#f8decb"] ;
213 -> 215 ;
216 [label="NOX <= 0.572\nsquared_error = 0.002\nsamples = 2\nvalue = 17.45", fillcolor="#f8dcc8"] ;
210 -> 216 ;
217 [label="squared_error = 0.0\nsamples = 1\nvalue = 17.5", fillcolor="#f8dcc8"] ;
216 -> 217 ;
218 [label="squared_error = 0.0\nsamples = 1\nvalue = 17.4", fillcolor="#f8dcc8"] ;
216 -> 218 ;
219 [label="LSTAT <= 14.75\nsquared_error = 0.302\nsamples = 2\nvalue = 19.45", fillcolor="#f7d7bf"] ;
209 -> 219 ;
220 [label="squared_error = 0.0\nsamples = 1\nvalue = 20.0", fillcolor="#f6d5bd"] ;
219 -> 220 ;
221 [label="squared_error = 0.0\nsamples = 1\nvalue = 18.9", fillcolor="#f7d8c2"] ;
219 -> 221 ;
222 [label="CRIM <= 0.854\nsquared_error = 1.69\nsamples = 2\nvalue = 15.8", fillcolor="#f9e1cf"] ;
154 -> 222 ;
223 [label="squared_error = 0.0\nsamples = 1\nvalue = 17.1", fillcolor="#f8ddca"] ;
222 -> 223 ;
224 [label="squared_error = 0.0\nsamples = 1\nvalue = 14.5", fillcolor="#fae4d5"] ;
222 -> 224 ;
225 [label="AGE <= 60.3\nsquared_error = 2.032\nsamples = 4\nvalue = 22.525", fillcolor="#f5ceb2"] ;
153 -> 225 ;
226 [label="RAD <= 4.5\nsquared_error = 0.302\nsamples = 2\nvalue = 23.85", fillcolor="#f4caac"] ;
225 -> 226 ;
227 [label="squared_error = 0.0\nsamples = 1\nvalue = 24.4", fillcolor="#f4c9aa"] ;
226 -> 227 ;
228 [label="squared_error = -0.0\nsamples = 1\nvalue = 23.3", fillcolor="#f4ccae"] ;
226 -> 228 ;
229 [label="INDUS <= 12.53\nsquared_error = 0.25\nsamples = 2\nvalue = 21.2", fillcolor="#f6d2b8"] ;
225 -> 229 ;
230 [label="squared_error = 0.0\nsamples = 1\nvalue = 20.7", fillcolor="#f6d3ba"] ;
229 -> 230 ;
231 [label="squared_error = 0.0\nsamples = 1\nvalue = 21.7", fillcolor="#f5d0b6"] ;
229 -> 231 ;
232 [label="LSTAT <= 5.19\nsquared_error = 14.05\nsamples = 41\nvalue = 26.9", fillcolor="#f2c29f"] ;
4 -> 232 ;
233 [label="DIS <= 4.095\nsquared_error = 15.669\nsamples = 11\nvalue = 30.118", fillcolor="#f0b990"] ;
232 -> 233 ;
234 [label="CRIM <= 0.25\nsquared_error = 0.36\nsamples = 2\nvalue = 23.4", fillcolor="#f4cbae"] ;
233 -> 234 ;
235 [label="squared_error = 0.0\nsamples = 1\nvalue = 24.0", fillcolor="#f4caab"] ;
234 -> 235 ;
236 [label="squared_error = 0.0\nsamples = 1\nvalue = 22.8", fillcolor="#f5cdb1"] ;
234 -> 236 ;
237 [label="LSTAT <= 4.705\nsquared_error = 6.812\nsamples = 9\nvalue = 31.611", fillcolor="#f0b48a"] ;
233 -> 237 ;
238 [label="AGE <= 38.3\nsquared_error = 1.262\nsamples = 7\nvalue = 30.343", fillcolor="#f0b88f"] ;
237 -> 238 ;
239 [label="PTRATIO <= 19.15\nsquared_error = 0.562\nsamples = 5\nvalue = 29.76", fillcolor="#f1ba92"] ;
238 -> 239 ;
240 [label="RAD <= 4.0\nsquared_error = 0.207\nsamples = 4\nvalue = 30.075", fillcolor="#f1b991"] ;
239 -> 240 ;
241 [label="squared_error = 0.0\nsamples = 1\nvalue = 30.8", fillcolor="#f0b78d"] ;
240 -> 241 ;
242 [label="INDUS <= 2.73\nsquared_error = 0.042\nsamples = 3\nvalue = 29.833", fillcolor="#f1b992"] ;
240 -> 242 ;
243 [label="squared_error = 0.0\nsamples = 1\nvalue = 30.1", fillcolor="#f0b991"] ;
242 -> 243 ;
244 [label="CRIM <= 0.104\nsquared_error = 0.01\nsamples = 2\nvalue = 29.7", fillcolor="#f1ba92"] ;
242 -> 244 ;
245 [label="squared_error = 0.0\nsamples = 1\nvalue = 29.6", fillcolor="#f1ba93"] ;
244 -> 245 ;
246 [label="squared_error = -0.0\nsamples = 1\nvalue = 29.8", fillcolor="#f1ba92"] ;
244 -> 246 ;
247 [label="squared_error = 0.0\nsamples = 1\nvalue = 28.5", fillcolor="#f1bd98"] ;
239 -> 247 ;
248 [label="LSTAT <= 3.465\nsquared_error = 0.04\nsamples = 2\nvalue = 31.8", fillcolor="#f0b489"] ;
238 -> 248 ;
249 [label="squared_error = 0.0\nsamples = 1\nvalue = 32.0", fillcolor="#efb388"] ;
248 -> 249 ;
250 [label="squared_error = 0.0\nsamples = 1\nvalue = 31.6", fillcolor="#f0b58a"] ;
248 -> 250 ;
251 [label="DIS <= 5.29\nsquared_error = 0.902\nsamples = 2\nvalue = 36.05", fillcolor="#eda876"] ;
237 -> 251 ;
252 [label="squared_error = 0.0\nsamples = 1\nvalue = 35.1", fillcolor="#eeab7b"] ;
251 -> 252 ;
253 [label="squared_error = 0.0\nsamples = 1\nvalue = 37.0", fillcolor="#eda572"] ;
251 -> 253 ;
254 [label="LSTAT <= 9.935\nsquared_error = 8.267\nsamples = 30\nvalue = 25.72", fillcolor="#f3c5a4"] ;
232 -> 254 ;
255 [label="DIS <= 4.919\nsquared_error = 6.678\nsamples = 27\nvalue = 26.207", fillcolor="#f3c4a2"] ;
254 -> 255 ;
256 [label="INDUS <= 6.685\nsquared_error = 8.674\nsamples = 15\nvalue = 27.133", fillcolor="#f2c19e"] ;
255 -> 256 ;
257 [label="INDUS <= 4.27\nsquared_error = 2.876\nsamples = 8\nvalue = 29.188", fillcolor="#f1bb95"] ;
256 -> 257 ;
258 [label="RM <= 6.812\nsquared_error = 0.896\nsamples = 3\nvalue = 30.667", fillcolor="#f0b78e"] ;
257 -> 258 ;
259 [label="squared_error = 0.0\nsamples = 1\nvalue = 32.0", fillcolor="#efb388"] ;
258 -> 259 ;
260 [label="NOX <= 0.579\nsquared_error = 0.01\nsamples = 2\nvalue = 30.0", fillcolor="#f1b991"] ;
258 -> 260 ;
261 [label="squared_error = 0.0\nsamples = 1\nvalue = 29.9", fillcolor="#f1b991"] ;
260 -> 261 ;
262 [label="squared_error = 0.0\nsamples = 1\nvalue = 30.1", fillcolor="#f0b991"] ;
260 -> 262 ;
263 [label="RM <= 6.624\nsquared_error = 1.964\nsamples = 5\nvalue = 28.3", fillcolor="#f2be98"] ;
257 -> 263 ;
264 [label="RAD <= 6.0\nsquared_error = 0.25\nsamples = 2\nvalue = 29.6", fillcolor="#f1ba93"] ;
263 -> 264 ;
265 [label="squared_error = 0.0\nsamples = 1\nvalue = 29.1", fillcolor="#f1bc95"] ;
264 -> 265 ;
266 [label="squared_error = 0.0\nsamples = 1\nvalue = 30.1", fillcolor="#f0b991"] ;
264 -> 266 ;
267 [label="CRIM <= 0.403\nsquared_error = 1.229\nsamples = 3\nvalue = 27.433", fillcolor="#f2c09c"] ;
263 -> 267 ;
268 [label="RAD <= 5.5\nsquared_error = 0.002\nsamples = 2\nvalue = 26.65", fillcolor="#f2c2a0"] ;
267 -> 268 ;
269 [label="squared_error = 0.0\nsamples = 1\nvalue = 26.6", fillcolor="#f3c3a0"] ;
268 -> 269 ;
270 [label="squared_error = 0.0\nsamples = 1\nvalue = 26.7", fillcolor="#f2c2a0"] ;
268 -> 270 ;
271 [label="squared_error = -0.0\nsamples = 1\nvalue = 29.0", fillcolor="#f1bc95"] ;
267 -> 271 ;
272 [label="LSTAT <= 8.58\nsquared_error = 4.967\nsamples = 7\nvalue = 24.786", fillcolor="#f4c8a8"] ;
256 -> 272 ;
273 [label="B <= 394.205\nsquared_error = 0.658\nsamples = 5\nvalue = 23.46", fillcolor="#f4cbae"] ;
272 -> 273 ;
274 [label="RAD <= 3.0\nsquared_error = 0.527\nsamples = 3\nvalue = 23.0", fillcolor="#f5cdb0"] ;
273 -> 274 ;
275 [label="squared_error = 0.0\nsamples = 1\nvalue = 22.0", fillcolor="#f5cfb4"] ;
274 -> 275 ;
276 [label="NOX <= 0.701\nsquared_error = 0.04\nsamples = 2\nvalue = 23.5", fillcolor="#f4cbae"] ;
274 -> 276 ;
277 [label="squared_error = 0.0\nsamples = 1\nvalue = 23.7", fillcolor="#f4cbad"] ;
276 -> 277 ;
278 [label="squared_error = 0.0\nsamples = 1\nvalue = 23.3", fillcolor="#f4ccae"] ;
276 -> 278 ;
279 [label="PTRATIO <= 19.8\nsquared_error = 0.062\nsamples = 2\nvalue = 24.15", fillcolor="#f4c9ab"] ;
273 -> 279 ;
280 [label="squared_error = 0.0\nsamples = 1\nvalue = 24.4", fillcolor="#f4c9aa"] ;
279 -> 280 ;
281 [label="squared_error = 0.0\nsamples = 1\nvalue = 23.9", fillcolor="#f4caac"] ;
279 -> 281 ;
282 [label="LSTAT <= 9.555\nsquared_error = 0.36\nsamples = 2\nvalue = 28.1", fillcolor="#f2be99"] ;
272 -> 282 ;
283 [label="squared_error = 0.0\nsamples = 1\nvalue = 27.5", fillcolor="#f2c09c"] ;
282 -> 283 ;
284 [label="squared_error = -0.0\nsamples = 1\nvalue = 28.7", fillcolor="#f1bd97"] ;
282 -> 284 ;
285 [label="ZN <= 27.5\nsquared_error = 1.772\nsamples = 12\nvalue = 25.05", fillcolor="#f3c7a7"] ;
255 -> 285 ;
286 [label="CRIM <= 0.043\nsquared_error = 1.926\nsamples = 6\nvalue = 25.867", fillcolor="#f3c5a3"] ;
285 -> 286 ;
287 [label="squared_error = 0.0\nsamples = 1\nvalue = 28.0", fillcolor="#f2bf9a"] ;
286 -> 287 ;
288 [label="B <= 394.66\nsquared_error = 1.218\nsamples = 5\nvalue = 25.44", fillcolor="#f3c6a5"] ;
286 -> 288 ;
289 [label="AGE <= 34.25\nsquared_error = 0.203\nsamples = 2\nvalue = 26.65", fillcolor="#f2c2a0"] ;
288 -> 289 ;
290 [label="squared_error = 0.0\nsamples = 1\nvalue = 26.2", fillcolor="#f3c4a2"] ;
289 -> 290 ;
291 [label="squared_error = 0.0\nsamples = 1\nvalue = 27.1", fillcolor="#f2c19e"] ;
289 -> 291 ;
292 [label="DIS <= 6.108\nsquared_error = 0.269\nsamples = 3\nvalue = 24.633", fillcolor="#f4c8a9"] ;
288 -> 292 ;
293 [label="squared_error = 0.0\nsamples = 1\nvalue = 23.9", fillcolor="#f4caac"] ;
292 -> 293 ;
294 [label="squared_error = -0.0\nsamples = 2\nvalue = 25.0", fillcolor="#f3c7a7"] ;
292 -> 294 ;
295 [label="DIS <= 6.754\nsquared_error = 0.286\nsamples = 6\nvalue = 24.233", fillcolor="#f4c9aa"] ;
285 -> 295 ;
296 [label="AGE <= 49.3\nsquared_error = 0.09\nsamples = 2\nvalue = 23.6", fillcolor="#f4cbad"] ;
295 -> 296 ;
297 [label="squared_error = 0.0\nsamples = 1\nvalue = 23.3", fillcolor="#f4ccae"] ;
296 -> 297 ;
298 [label="squared_error = -0.0\nsamples = 1\nvalue = 23.9", fillcolor="#f4caac"] ;
296 -> 298 ;
299 [label="CRIM <= 0.062\nsquared_error = 0.083\nsamples = 4\nvalue = 24.55", fillcolor="#f4c8a9"] ;
295 -> 299 ;
300 [label="B <= 390.9\nsquared_error = 0.02\nsamples = 3\nvalue = 24.7", fillcolor="#f4c8a8"] ;
299 -> 300 ;
301 [label="AGE <= 35.15\nsquared_error = 0.0\nsamples = 2\nvalue = 24.8", fillcolor="#f4c8a8"] ;
300 -> 301 ;
302 [label="squared_error = 0.0\nsamples = 1\nvalue = 24.8", fillcolor="#f4c8a8"] ;
301 -> 302 ;
303 [label="squared_error = 0.0\nsamples = 1\nvalue = 24.8", fillcolor="#f4c8a8"] ;
301 -> 303 ;
304 [label="squared_error = -0.0\nsamples = 1\nvalue = 24.5", fillcolor="#f4c8a9"] ;
300 -> 304 ;
305 [label="squared_error = 0.0\nsamples = 1\nvalue = 24.1", fillcolor="#f4caab"] ;
299 -> 305 ;
306 [label="AGE <= 84.45\nsquared_error = 1.182\nsamples = 3\nvalue = 21.333", fillcolor="#f6d1b7"] ;
254 -> 306 ;
307 [label="squared_error = 0.0\nsamples = 1\nvalue = 22.8", fillcolor="#f5cdb1"] ;
306 -> 307 ;
308 [label="PTRATIO <= 20.6\nsquared_error = 0.16\nsamples = 2\nvalue = 20.6", fillcolor="#f6d3ba"] ;
306 -> 308 ;
309 [label="squared_error = 0.0\nsamples = 1\nvalue = 20.2", fillcolor="#f6d4bc"] ;
308 -> 309 ;
310 [label="squared_error = -0.0\nsamples = 1\nvalue = 21.0", fillcolor="#f6d2b9"] ;
308 -> 310 ;
311 [label="NOX <= 0.603\nsquared_error = 21.265\nsamples = 93\nvalue = 14.456", fillcolor="#fae5d5"] ;
1 -> 311 ;
312 [label="CRIM <= 0.593\nsquared_error = 11.76\nsamples = 33\nvalue = 18.273", fillcolor="#f7dac5"] ;
311 -> 312 ;
313 [label="DIS <= 6.016\nsquared_error = 7.058\nsamples = 18\nvalue = 20.433", fillcolor="#f6d4bb"] ;
312 -> 313 ;
314 [label="DIS <= 5.701\nsquared_error = 4.918\nsamples = 15\nvalue = 21.127", fillcolor="#f6d2b8"] ;
313 -> 314 ;
315 [label="AGE <= 62.75\nsquared_error = 2.539\nsamples = 14\nvalue = 20.7", fillcolor="#f6d3ba"] ;
314 -> 315 ;
316 [label="LSTAT <= 16.815\nsquared_error = 0.562\nsamples = 4\nvalue = 22.725", fillcolor="#f5cdb1"] ;
315 -> 316 ;
317 [label="AGE <= 46.4\nsquared_error = 0.123\nsamples = 2\nvalue = 22.05", fillcolor="#f5cfb4"] ;
316 -> 317 ;
318 [label="squared_error = 0.0\nsamples = 1\nvalue = 21.7", fillcolor="#f5d0b6"] ;
317 -> 318 ;
319 [label="squared_error = 0.0\nsamples = 1\nvalue = 22.4", fillcolor="#f5ceb2"] ;
317 -> 319 ;
320 [label="RM <= 5.541\nsquared_error = 0.09\nsamples = 2\nvalue = 23.4", fillcolor="#f4cbae"] ;
316 -> 320 ;
321 [label="squared_error = 0.0\nsamples = 1\nvalue = 23.7", fillcolor="#f4cbad"] ;
320 -> 321 ;
322 [label="squared_error = 0.0\nsamples = 1\nvalue = 23.1", fillcolor="#f5ccaf"] ;
320 -> 322 ;
323 [label="PTRATIO <= 17.6\nsquared_error = 1.033\nsamples = 10\nvalue = 19.89", fillcolor="#f6d5bd"] ;
315 -> 323 ;
324 [label="INDUS <= 10.045\nsquared_error = 0.01\nsamples = 2\nvalue = 21.6", fillcolor="#f5d1b6"] ;
323 -> 324 ;
325 [label="squared_error = 0.0\nsamples = 1\nvalue = 21.7", fillcolor="#f5d0b6"] ;
324 -> 325 ;
326 [label="squared_error = -0.0\nsamples = 1\nvalue = 21.5", fillcolor="#f5d1b6"] ;
324 -> 326 ;
327 [label="LSTAT <= 17.755\nsquared_error = 0.375\nsamples = 8\nvalue = 19.463", fillcolor="#f7d7bf"] ;
323 -> 327 ;
328 [label="LSTAT <= 16.075\nsquared_error = 0.184\nsamples = 5\nvalue = 19.1", fillcolor="#f7d8c1"] ;
327 -> 328 ;
329 [label="RAD <= 4.5\nsquared_error = 0.04\nsamples = 2\nvalue = 19.6", fillcolor="#f7d6bf"] ;
328 -> 329 ;
330 [label="squared_error = 0.0\nsamples = 1\nvalue = 19.8", fillcolor="#f6d6be"] ;
329 -> 330 ;
331 [label="squared_error = -0.0\nsamples = 1\nvalue = 19.4", fillcolor="#f7d7c0"] ;
329 -> 331 ;
332 [label="B <= 395.925\nsquared_error = 0.002\nsamples = 3\nvalue = 18.767", fillcolor="#f7d8c2"] ;
328 -> 332 ;
333 [label="NOX <= 0.564\nsquared_error = 0.0\nsamples = 2\nvalue = 18.8", fillcolor="#f7d8c2"] ;
332 -> 333 ;
334 [label="squared_error = 0.0\nsamples = 1\nvalue = 18.8", fillcolor="#f7d8c2"] ;
333 -> 334 ;
335 [label="squared_error = 0.0\nsamples = 1\nvalue = 18.8", fillcolor="#f7d8c2"] ;
333 -> 335 ;
336 [label="squared_error = -0.0\nsamples = 1\nvalue = 18.7", fillcolor="#f7d9c3"] ;
332 -> 336 ;
337 [label="CRIM <= 0.191\nsquared_error = 0.109\nsamples = 3\nvalue = 20.067", fillcolor="#f6d5bd"] ;
327 -> 337 ;
338 [label="squared_error = 0.0\nsamples = 1\nvalue = 20.5", fillcolor="#f6d4bb"] ;
337 -> 338 ;
339 [label="TAX <= 334.0\nsquared_error = 0.022\nsamples = 2\nvalue = 19.85", fillcolor="#f6d5be"] ;
337 -> 339 ;
340 [label="squared_error = 0.0\nsamples = 1\nvalue = 20.0", fillcolor="#f6d5bd"] ;
339 -> 340 ;
341 [label="squared_error = -0.0\nsamples = 1\nvalue = 19.7", fillcolor="#f7d6be"] ;
339 -> 341 ;
342 [label="squared_error = -0.0\nsamples = 1\nvalue = 27.1", fillcolor="#f2c19e"] ;
314 -> 342 ;
343 [label="TAX <= 272.0\nsquared_error = 3.336\nsamples = 3\nvalue = 16.967", fillcolor="#f8ddca"] ;
313 -> 343 ;
344 [label="squared_error = 0.0\nsamples = 1\nvalue = 19.4", fillcolor="#f7d7c0"] ;
343 -> 344 ;
345 [label="AGE <= 97.15\nsquared_error = 0.562\nsamples = 2\nvalue = 15.75", fillcolor="#f9e1d0"] ;
343 -> 345 ;
346 [label="squared_error = 0.0\nsamples = 1\nvalue = 15.0", fillcolor="#f9e3d3"] ;
345 -> 346 ;
347 [label="squared_error = 0.0\nsamples = 1\nvalue = 16.5", fillcolor="#f8dfcc"] ;
345 -> 347 ;
348 [label="CRIM <= 2.868\nsquared_error = 5.079\nsamples = 15\nvalue = 15.68", fillcolor="#f9e1d0"] ;
312 -> 348 ;
349 [label="LSTAT <= 20.45\nsquared_error = 0.654\nsamples = 7\nvalue = 14.4", fillcolor="#fae5d6"] ;
348 -> 349 ;
350 [label="RM <= 5.868\nsquared_error = 0.34\nsamples = 5\nvalue = 14.8", fillcolor="#f9e4d4"] ;
349 -> 350 ;
351 [label="AGE <= 92.85\nsquared_error = 0.09\nsamples = 2\nvalue = 14.2", fillcolor="#fae5d7"] ;
350 -> 351 ;
352 [label="squared_error = 0.0\nsamples = 1\nvalue = 13.9", fillcolor="#fae6d8"] ;
351 -> 352 ;
353 [label="squared_error = 0.0\nsamples = 1\nvalue = 14.5", fillcolor="#fae4d5"] ;
351 -> 353 ;
354 [label="B <= 350.355\nsquared_error = 0.107\nsamples = 3\nvalue = 15.2", fillcolor="#f9e2d2"] ;
350 -> 354 ;
355 [label="squared_error = 0.0\nsamples = 1\nvalue = 14.8", fillcolor="#f9e4d4"] ;
354 -> 355 ;
356 [label="CRIM <= 0.991\nsquared_error = 0.04\nsamples = 2\nvalue = 15.4", fillcolor="#f9e2d1"] ;
354 -> 356 ;
357 [label="squared_error = 0.0\nsamples = 1\nvalue = 15.6", fillcolor="#f9e1d0"] ;
356 -> 357 ;
358 [label="squared_error = 0.0\nsamples = 1\nvalue = 15.2", fillcolor="#f9e2d2"] ;
356 -> 358 ;
359 [label="AGE <= 90.05\nsquared_error = 0.04\nsamples = 2\nvalue = 13.4", fillcolor="#fae7da"] ;
349 -> 359 ;
360 [label="squared_error = 0.0\nsamples = 1\nvalue = 13.2", fillcolor="#fae8db"] ;
359 -> 360 ;
361 [label="squared_error = 0.0\nsamples = 1\nvalue = 13.6", fillcolor="#fae7d9"] ;
359 -> 361 ;
362 [label="DIS <= 2.485\nsquared_error = 6.262\nsamples = 8\nvalue = 16.8", fillcolor="#f8decb"] ;
348 -> 362 ;
363 [label="NOX <= 0.59\nsquared_error = 3.61\nsamples = 5\nvalue = 15.26", fillcolor="#f9e2d2"] ;
362 -> 363 ;
364 [label="LSTAT <= 21.895\nsquared_error = 0.109\nsamples = 3\nvalue = 13.733", fillcolor="#fae7d9"] ;
363 -> 364 ;
365 [label="AGE <= 94.85\nsquared_error = 0.022\nsamples = 2\nvalue = 13.95", fillcolor="#fae6d8"] ;
364 -> 365 ;
366 [label="squared_error = 0.0\nsamples = 1\nvalue = 14.1", fillcolor="#fae6d7"] ;
365 -> 366 ;
367 [label="squared_error = 0.0\nsamples = 1\nvalue = 13.8", fillcolor="#fae6d8"] ;
365 -> 367 ;
368 [label="squared_error = -0.0\nsamples = 1\nvalue = 13.3", fillcolor="#fae8da"] ;
364 -> 368 ;
369 [label="CRIM <= 16.431\nsquared_error = 0.122\nsamples = 2\nvalue = 17.55", fillcolor="#f8dcc8"] ;
363 -> 369 ;
370 [label="squared_error = 0.0\nsamples = 1\nvalue = 17.2", fillcolor="#f8ddc9"] ;
369 -> 370 ;
371 [label="squared_error = 0.0\nsamples = 1\nvalue = 17.9", fillcolor="#f8dbc6"] ;
369 -> 371 ;
372 [label="DIS <= 2.971\nsquared_error = 0.142\nsamples = 3\nvalue = 19.367", fillcolor="#f7d7c0"] ;
362 -> 372 ;
373 [label="squared_error = 0.0\nsamples = 2\nvalue = 19.1", fillcolor="#f7d8c1"] ;
372 -> 373 ;
374 [label="squared_error = 0.0\nsamples = 1\nvalue = 19.9", fillcolor="#f6d5bd"] ;
372 -> 374 ;
375 [label="CRIM <= 11.46\nsquared_error = 14.073\nsamples = 60\nvalue = 12.357", fillcolor="#fbeadf"] ;
311 -> 375 ;
376 [label="LSTAT <= 18.93\nsquared_error = 9.768\nsamples = 38\nvalue = 14.218", fillcolor="#fae5d6"] ;
375 -> 376 ;
377 [label="AGE <= 85.2\nsquared_error = 5.782\nsamples = 21\nvalue = 15.89", fillcolor="#f9e1cf"] ;
376 -> 377 ;
378 [label="squared_error = 0.0\nsamples = 1\nvalue = 23.2", fillcolor="#f4ccaf"] ;
377 -> 378 ;
379 [label="CRIM <= 2.298\nsquared_error = 3.266\nsamples = 20\nvalue = 15.525", fillcolor="#f9e2d1"] ;
377 -> 379 ;
380 [label="LSTAT <= 17.135\nsquared_error = 2.47\nsamples = 7\nvalue = 17.114", fillcolor="#f8ddca"] ;
379 -> 380 ;
381 [label="CRIM <= 1.782\nsquared_error = 0.666\nsamples = 5\nvalue = 17.98", fillcolor="#f8dbc6"] ;
380 -> 381 ;
382 [label="RM <= 6.232\nsquared_error = 0.202\nsamples = 4\nvalue = 17.625", fillcolor="#f8dcc7"] ;
381 -> 382 ;
383 [label="DIS <= 1.858\nsquared_error = 0.04\nsamples = 2\nvalue = 17.2", fillcolor="#f8ddc9"] ;
382 -> 383 ;
384 [label="squared_error = 0.0\nsamples = 1\nvalue = 17.0", fillcolor="#f8ddca"] ;
383 -> 384 ;
385 [label="squared_error = 0.0\nsamples = 1\nvalue = 17.4", fillcolor="#f8dcc8"] ;
383 -> 385 ;
386 [label="DIS <= 1.962\nsquared_error = 0.002\nsamples = 2\nvalue = 18.05", fillcolor="#f7dac6"] ;
382 -> 386 ;
387 [label="squared_error = 0.0\nsamples = 1\nvalue = 18.0", fillcolor="#f7dbc6"] ;
386 -> 387 ;
388 [label="squared_error = -0.0\nsamples = 1\nvalue = 18.1", fillcolor="#f7dac5"] ;
386 -> 388 ;
389 [label="squared_error = -0.0\nsamples = 1\nvalue = 19.4", fillcolor="#f7d7c0"] ;
381 -> 389 ;
390 [label="LSTAT <= 17.825\nsquared_error = 0.423\nsamples = 2\nvalue = 14.95", fillcolor="#f9e3d3"] ;
380 -> 390 ;
391 [label="squared_error = 0.0\nsamples = 1\nvalue = 15.6", fillcolor="#f9e1d0"] ;
390 -> 391 ;
392 [label="squared_error = 0.0\nsamples = 1\nvalue = 14.3", fillcolor="#fae5d6"] ;
390 -> 392 ;
393 [label="RM <= 6.274\nsquared_error = 1.602\nsamples = 13\nvalue = 14.669", fillcolor="#f9e4d4"] ;
379 -> 393 ;
394 [label="NOX <= 0.729\nsquared_error = 0.558\nsamples = 5\nvalue = 13.72", fillcolor="#fae7d9"] ;
393 -> 394 ;
395 [label="CRIM <= 9.781\nsquared_error = 0.047\nsamples = 3\nvalue = 14.3", fillcolor="#fae5d6"] ;
394 -> 395 ;
396 [label="CRIM <= 8.176\nsquared_error = 0.003\nsamples = 2\nvalue = 14.15", fillcolor="#fae5d7"] ;
395 -> 396 ;
397 [label="squared_error = 0.0\nsamples = 1\nvalue = 14.2", fillcolor="#fae5d7"] ;
396 -> 397 ;
398 [label="squared_error = 0.0\nsamples = 1\nvalue = 14.1", fillcolor="#fae6d7"] ;
396 -> 398 ;
399 [label="squared_error = -0.0\nsamples = 1\nvalue = 14.6", fillcolor="#f9e4d5"] ;
395 -> 399 ;
400 [label="TAX <= 534.5\nsquared_error = 0.062\nsamples = 2\nvalue = 12.85", fillcolor="#fae9dc"] ;
394 -> 400 ;
401 [label="squared_error = 0.0\nsamples = 1\nvalue = 13.1", fillcolor="#fae8db"] ;
400 -> 401 ;
402 [label="squared_error = 0.0\nsamples = 1\nvalue = 12.6", fillcolor="#fbeade"] ;
400 -> 402 ;
403 [label="DIS <= 1.792\nsquared_error = 1.34\nsamples = 8\nvalue = 15.263", fillcolor="#f9e2d2"] ;
393 -> 403 ;
404 [label="squared_error = 0.0\nsamples = 1\nvalue = 13.1", fillcolor="#fae8db"] ;
403 -> 404 ;
405 [label="B <= 318.38\nsquared_error = 0.768\nsamples = 7\nvalue = 15.571", fillcolor="#f9e1d0"] ;
403 -> 405 ;
406 [label="LSTAT <= 17.005\nsquared_error = 0.08\nsamples = 3\nvalue = 14.7", fillcolor="#f9e4d4"] ;
405 -> 406 ;
407 [label="squared_error = 0.0\nsamples = 1\nvalue = 14.3", fillcolor="#fae5d6"] ;
406 -> 407 ;
408 [label="AGE <= 95.25\nsquared_error = 0.0\nsamples = 2\nvalue = 14.9", fillcolor="#f9e3d3"] ;
406 -> 408 ;
409 [label="squared_error = 0.0\nsamples = 1\nvalue = 14.9", fillcolor="#f9e3d3"] ;
408 -> 409 ;
410 [label="squared_error = 0.0\nsamples = 1\nvalue = 14.9", fillcolor="#f9e3d3"] ;
408 -> 410 ;
411 [label="LSTAT <= 18.765\nsquared_error = 0.287\nsamples = 4\nvalue = 16.225", fillcolor="#f9e0ce"] ;
405 -> 411 ;
412 [label="AGE <= 92.7\nsquared_error = 0.08\nsamples = 3\nvalue = 16.5", fillcolor="#f8dfcc"] ;
411 -> 412 ;
413 [label="squared_error = 0.0\nsamples = 1\nvalue = 16.1", fillcolor="#f9e0ce"] ;
412 -> 413 ;
414 [label="squared_error = 0.0\nsamples = 2\nvalue = 16.7", fillcolor="#f8decc"] ;
412 -> 414 ;
415 [label="squared_error = -0.0\nsamples = 1\nvalue = 15.4", fillcolor="#f9e2d1"] ;
411 -> 415 ;
416 [label="DIS <= 1.623\nsquared_error = 6.973\nsamples = 17\nvalue = 12.153", fillcolor="#fbebe0"] ;
376 -> 416 ;
417 [label="DIS <= 1.385\nsquared_error = 1.158\nsamples = 9\nvalue = 13.944", fillcolor="#fae6d8"] ;
416 -> 417 ;
418 [label="CRIM <= 3.05\nsquared_error = 0.577\nsamples = 4\nvalue = 13.075", fillcolor="#fae8db"] ;
417 -> 418 ;
419 [label="squared_error = 0.0\nsamples = 1\nvalue = 11.8", fillcolor="#fbece1"] ;
418 -> 419 ;
420 [label="NOX <= 0.669\nsquared_error = 0.047\nsamples = 3\nvalue = 13.5", fillcolor="#fae7da"] ;
418 -> 420 ;
421 [label="squared_error = 0.0\nsamples = 1\nvalue = 13.8", fillcolor="#fae6d8"] ;
420 -> 421 ;
422 [label="TAX <= 534.5\nsquared_error = 0.002\nsamples = 2\nvalue = 13.35", fillcolor="#fae8da"] ;
420 -> 422 ;
423 [label="squared_error = 0.0\nsamples = 1\nvalue = 13.4", fillcolor="#fae7da"] ;
422 -> 423 ;
424 [label="squared_error = -0.0\nsamples = 1\nvalue = 13.3", fillcolor="#fae8da"] ;
422 -> 424 ;
425 [label="CRIM <= 2.557\nsquared_error = 0.534\nsamples = 5\nvalue = 14.64", fillcolor="#f9e4d5"] ;
417 -> 425 ;
426 [label="RM <= 5.575\nsquared_error = 0.062\nsamples = 3\nvalue = 14.067", fillcolor="#fae6d7"] ;
425 -> 426 ;
427 [label="squared_error = 0.0\nsamples = 1\nvalue = 14.4", fillcolor="#fae5d6"] ;
426 -> 427 ;
428 [label="PTRATIO <= 17.95\nsquared_error = 0.01\nsamples = 2\nvalue = 13.9", fillcolor="#fae6d8"] ;
426 -> 428 ;
429 [label="squared_error = 0.0\nsamples = 1\nvalue = 13.8", fillcolor="#fae6d8"] ;
428 -> 429 ;
430 [label="squared_error = 0.0\nsamples = 1\nvalue = 14.0", fillcolor="#fae6d7"] ;
428 -> 430 ;
431 [label="RM <= 5.533\nsquared_error = 0.01\nsamples = 2\nvalue = 15.5", fillcolor="#f9e2d1"] ;
425 -> 431 ;
432 [label="squared_error = 0.0\nsamples = 1\nvalue = 15.6", fillcolor="#f9e1d0"] ;
431 -> 432 ;
433 [label="squared_error = -0.0\nsamples = 1\nvalue = 15.4", fillcolor="#f9e2d1"] ;
431 -> 433 ;
434 [label="NOX <= 0.686\nsquared_error = 5.842\nsamples = 8\nvalue = 10.138", fillcolor="#fcf1e8"] ;
416 -> 434 ;
435 [label="LSTAT <= 27.735\nsquared_error = 0.202\nsamples = 3\nvalue = 7.533", fillcolor="#fef8f4"] ;
434 -> 435 ;
436 [label="PTRATIO <= 20.15\nsquared_error = 0.062\nsamples = 2\nvalue = 7.25", fillcolor="#fef9f5"] ;
435 -> 436 ;
437 [label="squared_error = 0.0\nsamples = 1\nvalue = 7.0", fillcolor="#fef9f6"] ;
436 -> 437 ;
438 [label="squared_error = 0.0\nsamples = 1\nvalue = 7.5", fillcolor="#fef8f4"] ;
436 -> 438 ;
439 [label="squared_error = 0.0\nsamples = 1\nvalue = 8.1", fillcolor="#fdf6f1"] ;
435 -> 439 ;
440 [label="DIS <= 1.655\nsquared_error = 2.716\nsamples = 5\nvalue = 11.7", fillcolor="#fbece2"] ;
434 -> 440 ;
441 [label="squared_error = 0.0\nsamples = 1\nvalue = 8.5", fillcolor="#fdf5f0"] ;
440 -> 441 ;
442 [label="NOX <= 0.727\nsquared_error = 0.195\nsamples = 4\nvalue = 12.5", fillcolor="#fbeade"] ;
440 -> 442 ;
443 [label="CRIM <= 6.699\nsquared_error = 0.042\nsamples = 3\nvalue = 12.733", fillcolor="#fbe9dd"] ;
442 -> 443 ;
444 [label="B <= 203.69\nsquared_error = 0.01\nsamples = 2\nvalue = 12.6", fillcolor="#fbeade"] ;
443 -> 444 ;
445 [label="squared_error = 0.0\nsamples = 1\nvalue = 12.7", fillcolor="#fbe9dd"] ;
444 -> 445 ;
446 [label="squared_error = -0.0\nsamples = 1\nvalue = 12.5", fillcolor="#fbeade"] ;
444 -> 446 ;
447 [label="squared_error = 0.0\nsamples = 1\nvalue = 13.0", fillcolor="#fae9dc"] ;
443 -> 447 ;
448 [label="squared_error = 0.0\nsamples = 1\nvalue = 11.8", fillcolor="#fbece1"] ;
442 -> 448 ;
449 [label="NOX <= 0.675\nsquared_error = 5.18\nsamples = 22\nvalue = 9.141", fillcolor="#fdf3ed"] ;
375 -> 449 ;
450 [label="LSTAT <= 22.735\nsquared_error = 2.19\nsamples = 5\nvalue = 11.68", fillcolor="#fbece2"] ;
449 -> 450 ;
451 [label="CRIM <= 16.871\nsquared_error = 0.087\nsamples = 3\nvalue = 10.5", fillcolor="#fcf0e7"] ;
450 -> 451 ;
452 [label="squared_error = 0.0\nsamples = 1\nvalue = 10.9", fillcolor="#fceee5"] ;
451 -> 452 ;
453 [label="LSTAT <= 19.495\nsquared_error = 0.01\nsamples = 2\nvalue = 10.3", fillcolor="#fcf0e8"] ;
451 -> 453 ;
454 [label="squared_error = 0.0\nsamples = 1\nvalue = 10.4", fillcolor="#fcf0e7"] ;
453 -> 454 ;
455 [label="squared_error = -0.0\nsamples = 1\nvalue = 10.2", fillcolor="#fcf0e8"] ;
453 -> 455 ;
456 [label="RM <= 5.259\nsquared_error = 0.122\nsamples = 2\nvalue = 13.45", fillcolor="#fae7da"] ;
450 -> 456 ;
457 [label="squared_error = 0.0\nsamples = 1\nvalue = 13.8", fillcolor="#fae6d8"] ;
456 -> 457 ;
458 [label="squared_error = 0.0\nsamples = 1\nvalue = 13.1", fillcolor="#fae8db"] ;
456 -> 458 ;
459 [label="AGE <= 97.35\nsquared_error = 3.605\nsamples = 17\nvalue = 8.394", fillcolor="#fdf5f0"] ;
449 -> 459 ;
460 [label="DIS <= 1.858\nsquared_error = 1.407\nsamples = 9\nvalue = 9.433", fillcolor="#fcf3eb"] ;
459 -> 460 ;
461 [label="NOX <= 0.686\nsquared_error = 0.537\nsamples = 6\nvalue = 8.8", fillcolor="#fdf4ee"] ;
460 -> 461 ;
462 [label="squared_error = 0.0\nsamples = 1\nvalue = 10.4", fillcolor="#fcf0e7"] ;
461 -> 462 ;
463 [label="DIS <= 1.523\nsquared_error = 0.03\nsamples = 5\nvalue = 8.48", fillcolor="#fdf5f0"] ;
461 -> 463 ;
464 [label="squared_error = 0.0\nsamples = 1\nvalue = 8.8", fillcolor="#fdf4ee"] ;
463 -> 464 ;
465 [label="RM <= 5.44\nsquared_error = 0.005\nsamples = 4\nvalue = 8.4", fillcolor="#fdf5f0"] ;
463 -> 465 ;
466 [label="squared_error = 0.0\nsamples = 1\nvalue = 8.3", fillcolor="#fdf6f0"] ;
465 -> 466 ;
467 [label="RM <= 5.733\nsquared_error = 0.002\nsamples = 3\nvalue = 8.433", fillcolor="#fdf5f0"] ;
465 -> 467 ;
468 [label="squared_error = 0.0\nsamples = 1\nvalue = 8.5", fillcolor="#fdf5f0"] ;
467 -> 468 ;
469 [label="NOX <= 0.729\nsquared_error = 0.0\nsamples = 2\nvalue = 8.4", fillcolor="#fdf5f0"] ;
467 -> 469 ;
470 [label="squared_error = 0.0\nsamples = 1\nvalue = 8.4", fillcolor="#fdf5f0"] ;
469 -> 470 ;
471 [label="squared_error = 0.0\nsamples = 1\nvalue = 8.4", fillcolor="#fdf5f0"] ;
469 -> 471 ;
472 [label="RM <= 6.335\nsquared_error = 0.74\nsamples = 3\nvalue = 10.7", fillcolor="#fcefe6"] ;
460 -> 472 ;
473 [label="CRIM <= 13.358\nsquared_error = 0.203\nsamples = 2\nvalue = 11.25", fillcolor="#fbeee4"] ;
472 -> 473 ;
474 [label="squared_error = 0.0\nsamples = 1\nvalue = 10.8", fillcolor="#fcefe5"] ;
473 -> 474 ;
475 [label="squared_error = 0.0\nsamples = 1\nvalue = 11.7", fillcolor="#fbece2"] ;
473 -> 475 ;
476 [label="squared_error = -0.0\nsamples = 1\nvalue = 9.6", fillcolor="#fcf2eb"] ;
472 -> 476 ;
477 [label="NOX <= 0.697\nsquared_error = 3.497\nsamples = 8\nvalue = 7.225", fillcolor="#fef9f5"] ;
459 -> 477 ;
478 [label="B <= 236.62\nsquared_error = 2.122\nsamples = 5\nvalue = 6.28", fillcolor="#fefbf9"] ;
477 -> 478 ;
479 [label="LSTAT <= 28.8\nsquared_error = 0.81\nsamples = 2\nvalue = 7.9", fillcolor="#fdf7f2"] ;
478 -> 479 ;
480 [label="squared_error = 0.0\nsamples = 1\nvalue = 8.8", fillcolor="#fdf4ee"] ;
479 -> 480 ;
481 [label="squared_error = 0.0\nsamples = 1\nvalue = 7.0", fillcolor="#fef9f6"] ;
479 -> 481 ;
482 [label="CRIM <= 31.699\nsquared_error = 0.08\nsamples = 3\nvalue = 5.2", fillcolor="#fffefe"] ;
478 -> 482 ;
483 [label="squared_error = 0.0\nsamples = 1\nvalue = 5.6", fillcolor="#fffdfc"] ;
482 -> 483 ;
484 [label="squared_error = 0.0\nsamples = 2\nvalue = 5.0", fillcolor="#ffffff"] ;
482 -> 484 ;
485 [label="CRIM <= 20.603\nsquared_error = 1.82\nsamples = 3\nvalue = 8.8", fillcolor="#fdf4ee"] ;
477 -> 485 ;
486 [label="RM <= 5.714\nsquared_error = 0.563\nsamples = 2\nvalue = 7.95", fillcolor="#fdf7f2"] ;
485 -> 486 ;
487 [label="squared_error = 0.0\nsamples = 1\nvalue = 7.2", fillcolor="#fef9f5"] ;
486 -> 487 ;
488 [label="squared_error = 0.0\nsamples = 1\nvalue = 8.7", fillcolor="#fdf5ef"] ;
486 -> 488 ;
489 [label="squared_error = 0.0\nsamples = 1\nvalue = 10.5", fillcolor="#fcf0e7"] ;
485 -> 489 ;
490 [label="RM <= 7.783\nsquared_error = 51.76\nsamples = 38\nvalue = 39.105", fillcolor="#eba069"] ;
0 -> 490 [labeldistance=2.5, labelangle=-45, headlabel="False"] ;
491 [label="LSTAT <= 3.78\nsquared_error = 18.45\nsamples = 25\nvalue = 34.76", fillcolor="#eeac7c"] ;
490 -> 491 ;
492 [label="LSTAT <= 3.035\nsquared_error = 14.823\nsamples = 2\nvalue = 46.15", fillcolor="#e78c4a"] ;
491 -> 492 ;
493 [label="squared_error = 0.0\nsamples = 1\nvalue = 50.0", fillcolor="#e58139"] ;
492 -> 493 ;
494 [label="squared_error = 0.0\nsamples = 1\nvalue = 42.3", fillcolor="#e9975b"] ;
492 -> 494 ;
495 [label="TAX <= 204.5\nsquared_error = 6.504\nsamples = 23\nvalue = 33.77", fillcolor="#eeae80"] ;
491 -> 495 ;
496 [label="LSTAT <= 6.3\nsquared_error = 1.207\nsamples = 3\nvalue = 38.3", fillcolor="#eca26c"] ;
495 -> 496 ;
497 [label="B <= 395.51\nsquared_error = 0.123\nsamples = 2\nvalue = 37.55", fillcolor="#eca470"] ;
496 -> 497 ;
498 [label="squared_error = 0.0\nsamples = 1\nvalue = 37.9", fillcolor="#eca36e"] ;
497 -> 498 ;
499 [label="squared_error = 0.0\nsamples = 1\nvalue = 37.2", fillcolor="#eca571"] ;
497 -> 499 ;
500 [label="squared_error = 0.0\nsamples = 1\nvalue = 39.8", fillcolor="#eb9e66"] ;
496 -> 500 ;
501 [label="RM <= 7.174\nsquared_error = 3.758\nsamples = 20\nvalue = 33.09", fillcolor="#efb083"] ;
495 -> 501 ;
502 [label="CRIM <= 0.033\nsquared_error = 2.329\nsamples = 6\nvalue = 31.45", fillcolor="#f0b58b"] ;
501 -> 502 ;
503 [label="RM <= 7.096\nsquared_error = 0.127\nsamples = 3\nvalue = 32.7", fillcolor="#efb185"] ;
502 -> 503 ;
504 [label="squared_error = 0.0\nsamples = 1\nvalue = 32.2", fillcolor="#efb387"] ;
503 -> 504 ;
505 [label="CRIM <= 0.019\nsquared_error = 0.003\nsamples = 2\nvalue = 32.95", fillcolor="#efb184"] ;
503 -> 505 ;
506 [label="squared_error = 0.0\nsamples = 1\nvalue = 32.9", fillcolor="#efb184"] ;
505 -> 506 ;
507 [label="squared_error = -0.0\nsamples = 1\nvalue = 33.0", fillcolor="#efb184"] ;
505 -> 507 ;
508 [label="PTRATIO <= 17.6\nsquared_error = 1.407\nsamples = 3\nvalue = 30.2", fillcolor="#f0b890"] ;
502 -> 508 ;
509 [label="TAX <= 318.0\nsquared_error = 0.423\nsamples = 2\nvalue = 30.95", fillcolor="#f0b68d"] ;
508 -> 509 ;
510 [label="squared_error = 0.0\nsamples = 1\nvalue = 31.6", fillcolor="#f0b58a"] ;
509 -> 510 ;
511 [label="squared_error = -0.0\nsamples = 1\nvalue = 30.3", fillcolor="#f0b890"] ;
509 -> 511 ;
512 [label="squared_error = -0.0\nsamples = 1\nvalue = 28.7", fillcolor="#f1bd97"] ;
508 -> 512 ;
513 [label="DIS <= 2.004\nsquared_error = 2.724\nsamples = 14\nvalue = 33.793", fillcolor="#eeae80"] ;
501 -> 513 ;
514 [label="DIS <= 1.912\nsquared_error = 0.062\nsamples = 2\nvalue = 36.25", fillcolor="#eda876"] ;
513 -> 514 ;
515 [label="squared_error = 0.0\nsamples = 1\nvalue = 36.0", fillcolor="#eda877"] ;
514 -> 515 ;
516 [label="squared_error = 0.0\nsamples = 1\nvalue = 36.5", fillcolor="#eda774"] ;
514 -> 516 ;
517 [label="CRIM <= 0.342\nsquared_error = 1.993\nsamples = 12\nvalue = 33.383", fillcolor="#efb082"] ;
513 -> 517 ;
518 [label="ZN <= 42.5\nsquared_error = 0.982\nsamples = 8\nvalue = 34.075", fillcolor="#eeae7f"] ;
517 -> 518 ;
519 [label="CRIM <= 0.163\nsquared_error = 0.742\nsamples = 5\nvalue = 33.54", fillcolor="#efaf81"] ;
518 -> 519 ;
520 [label="DIS <= 5.913\nsquared_error = 0.067\nsamples = 4\nvalue = 33.125", fillcolor="#efb083"] ;
519 -> 520 ;
521 [label="DIS <= 3.297\nsquared_error = 0.009\nsamples = 3\nvalue = 33.267", fillcolor="#efb083"] ;
520 -> 521 ;
522 [label="squared_error = 0.0\nsamples = 1\nvalue = 33.4", fillcolor="#efaf82"] ;
521 -> 522 ;
523 [label="squared_error = 0.0\nsamples = 2\nvalue = 33.2", fillcolor="#efb083"] ;
521 -> 523 ;
524 [label="squared_error = -0.0\nsamples = 1\nvalue = 32.7", fillcolor="#efb185"] ;
520 -> 524 ;
525 [label="squared_error = 0.0\nsamples = 1\nvalue = 35.2", fillcolor="#eeaa7a"] ;
519 -> 525 ;
526 [label="PTRATIO <= 16.55\nsquared_error = 0.109\nsamples = 3\nvalue = 34.967", fillcolor="#eeab7b"] ;
518 -> 526 ;
527 [label="PTRATIO <= 13.9\nsquared_error = 0.023\nsamples = 2\nvalue = 34.75", fillcolor="#eeac7c"] ;
526 -> 527 ;
528 [label="squared_error = 0.0\nsamples = 1\nvalue = 34.6", fillcolor="#eeac7d"] ;
527 -> 528 ;
529 [label="squared_error = 0.0\nsamples = 1\nvalue = 34.9", fillcolor="#eeab7b"] ;
527 -> 529 ;
530 [label="squared_error = -0.0\nsamples = 1\nvalue = 35.4", fillcolor="#edaa79"] ;
526 -> 530 ;
531 [label="RM <= 7.265\nsquared_error = 1.145\nsamples = 4\nvalue = 32.0", fillcolor="#efb388"] ;
517 -> 531 ;
532 [label="squared_error = 0.0\nsamples = 1\nvalue = 33.8", fillcolor="#eeae80"] ;
531 -> 532 ;
533 [label="NOX <= 0.577\nsquared_error = 0.087\nsamples = 3\nvalue = 31.4", fillcolor="#f0b58b"] ;
531 -> 533 ;
534 [label="B <= 383.105\nsquared_error = 0.01\nsamples = 2\nvalue = 31.6", fillcolor="#f0b58a"] ;
533 -> 534 ;
535 [label="squared_error = 0.0\nsamples = 1\nvalue = 31.7", fillcolor="#f0b48a"] ;
534 -> 535 ;
536 [label="squared_error = -0.0\nsamples = 1\nvalue = 31.5", fillcolor="#f0b58a"] ;
534 -> 536 ;
537 [label="squared_error = 0.0\nsamples = 1\nvalue = 31.0", fillcolor="#f0b68d"] ;
533 -> 537 ;
538 [label="PTRATIO <= 14.8\nsquared_error = 9.681\nsamples = 13\nvalue = 47.462", fillcolor="#e68844"] ;
490 -> 538 ;
539 [label="LSTAT <= 3.755\nsquared_error = 0.276\nsamples = 7\nvalue = 49.786", fillcolor="#e5823a"] ;
538 -> 539 ;
540 [label="squared_error = 0.0\nsamples = 5\nvalue = 50.0", fillcolor="#e58139"] ;
539 -> 540 ;
541 [label="ZN <= 57.5\nsquared_error = 0.562\nsamples = 2\nvalue = 49.25", fillcolor="#e5833c"] ;
539 -> 541 ;
542 [label="squared_error = 0.0\nsamples = 1\nvalue = 50.0", fillcolor="#e58139"] ;
541 -> 542 ;
543 [label="squared_error = 0.0\nsamples = 1\nvalue = 48.5", fillcolor="#e68540"] ;
541 -> 543 ;
544 [label="B <= 383.525\nsquared_error = 6.999\nsamples = 6\nvalue = 44.75", fillcolor="#e89050"] ;
538 -> 544 ;
545 [label="squared_error = 0.0\nsamples = 1\nvalue = 50.0", fillcolor="#e58139"] ;
544 -> 545 ;
546 [label="LSTAT <= 3.555\nsquared_error = 1.784\nsamples = 5\nvalue = 43.7", fillcolor="#e99355"] ;
544 -> 546 ;
547 [label="RAD <= 7.5\nsquared_error = 0.303\nsamples = 2\nvalue = 42.25", fillcolor="#e9975b"] ;
546 -> 547 ;
548 [label="squared_error = 0.0\nsamples = 1\nvalue = 42.8", fillcolor="#e99559"] ;
547 -> 548 ;
549 [label="squared_error = 0.0\nsamples = 1\nvalue = 41.7", fillcolor="#ea985e"] ;
547 -> 549 ;
550 [label="PTRATIO <= 17.7\nsquared_error = 0.436\nsamples = 3\nvalue = 44.667", fillcolor="#e89050"] ;
546 -> 550 ;
551 [label="ZN <= 10.0\nsquared_error = 0.09\nsamples = 2\nvalue = 45.1", fillcolor="#e88f4f"] ;
550 -> 551 ;
552 [label="squared_error = 0.0\nsamples = 1\nvalue = 44.8", fillcolor="#e89050"] ;
551 -> 552 ;
553 [label="squared_error = 0.0\nsamples = 1\nvalue = 45.4", fillcolor="#e88e4d"] ;
551 -> 553 ;
554 [label="squared_error = -0.0\nsamples = 1\nvalue = 43.8", fillcolor="#e99254"] ;
550 -> 554 ;
}